Language model created by QuickLM on Fri May 12 14:58:43 EDT 2017
Copyright (c) 1996-2010 Carnegie Mellon University and Alexander I. Rudnicky

The model is in standard ARPA format, designed by Doug Paul while he was at MITRE.

The code that was used to produce this language model is available in Open Source.
Please visit http://www.speech.cs.cmu.edu/tools/ for more information

The (fixed) discount mass is 0.5. The backoffs are computed using the ratio method.
This model based on a corpus of 17 sentences and 32 words

\data\
ngram 1=32
ngram 2=49
ngram 3=46

\1-grams:
-1.0051 </s> -0.3010
-1.0051 <s> -0.2473
-2.2355 A -0.2985
-2.2355 AM -0.2985
-1.9345 AND -0.2777
-1.9345 ARE -0.2960
-2.2355 BACKWARD -0.2558
-2.2355 BACKWARDS -0.2558
-2.2355 BENDER -0.2558
-2.2355 COMMANDS -0.2960
-2.2355 COOL -0.2558
-1.9345 FORWARD -0.2502
-2.2355 FORWARDS -0.2558
-1.5366 GO -0.2882
-2.2355 GOODBYE -0.2558
-1.9345 HELLO -0.2558
-2.2355 HI -0.2960
-2.2355 I -0.2985
-2.2355 IN -0.2985
-2.2355 LEELA -0.2558
-1.6335 LEFT -0.2502
-2.2355 MULTI -0.2985
-2.2355 MY -0.2985
-2.2355 PICKLES -0.2558
-2.2355 RIGHT -0.2558
-2.2355 ROBOT -0.2558
-1.3904 SAY -0.2830
-2.2355 STEP -0.2985
-1.9345 THEN -0.2882
-1.5366 TURN -0.2882
-2.2355 WAY -0.2558
-2.2355 YOU -0.2960

\2-grams:
-1.5315 <s> BENDER 0.0000
-0.8325 <s> GO 0.0000
-1.5315 <s> LEELA 0.0000
-1.5315 <s> PICKLES 0.0000
-0.7533 <s> SAY -0.0000
-1.0544 <s> TURN 0.0000
-0.3010 A ROBOT 0.0000
-0.3010 AM A 0.0000
-0.6021 AND SAY -0.2341
-0.6021 AND THEN 0.0000
-0.6021 ARE COOL 0.0000
-0.6021 ARE IN 0.0000
-0.3010 BACKWARD </s> -0.3010
-0.3010 BACKWARDS </s> -0.3010
-0.3010 BENDER </s> -0.3010
-0.3010 COMMANDS ARE -0.1761
-0.3010 COOL </s> -0.3010
-0.6021 FORWARD </s> -0.3010
-0.6021 FORWARD AND -0.1761
-0.3010 FORWARDS </s> -0.3010
-1.0000 GO BACKWARD 0.0000
-1.0000 GO BACKWARDS 0.0000
-0.6990 GO FORWARD 0.0000
-1.0000 GO FORWARDS 0.0000
-0.3010 GOODBYE </s> -0.3010
-0.3010 HELLO </s> -0.3010
-0.3010 HI THEN 0.0000
-0.3010 I AM 0.0000
-0.3010 IN MY 0.0000
-0.3010 LEELA </s> -0.3010
-0.4260 LEFT </s> -0.3010
-0.9031 LEFT AND -0.1761
-0.3010 MULTI STEP 0.0000
-0.3010 MY WAY 0.0000
-0.3010 PICKLES </s> -0.3010
-0.3010 RIGHT </s> -0.3010
-0.3010 ROBOT </s> -0.3010
-1.1461 SAY GOODBYE 0.0000
-0.8451 SAY HELLO 0.0000
-1.1461 SAY HI 0.0000
-1.1461 SAY I 0.0000
-1.1461 SAY MULTI 0.0000
-1.1461 SAY YOU 0.0000
-0.3010 STEP COMMANDS 0.0000
-0.3010 THEN TURN -0.0792
-0.3979 TURN LEFT 0.0000
-1.0000 TURN RIGHT 0.0000
-0.3010 WAY </s> -0.3010
-0.3010 YOU ARE -0.1761

\3-grams:
-0.3010 <s> BENDER </s>
-1.0000 <s> GO BACKWARD
-1.0000 <s> GO BACKWARDS
-0.6990 <s> GO FORWARD
-1.0000 <s> GO FORWARDS
-0.3010 <s> LEELA </s>
-0.3010 <s> PICKLES </s>
-1.0792 <s> SAY GOODBYE
-1.0792 <s> SAY HELLO
-1.0792 <s> SAY HI
-1.0792 <s> SAY I
-1.0792 <s> SAY MULTI
-1.0792 <s> SAY YOU
-0.4771 <s> TURN LEFT
-0.7782 <s> TURN RIGHT
-0.3010 A ROBOT </s>
-0.3010 AM A ROBOT
-0.3010 AND SAY HELLO
-0.3010 AND THEN TURN
-0.3010 ARE COOL </s>
-0.3010 ARE IN MY
-0.3010 COMMANDS ARE COOL
-0.3010 FORWARD AND SAY
-0.3010 GO BACKWARD </s>
-0.3010 GO BACKWARDS </s>
-0.6021 GO FORWARD </s>
-0.6021 GO FORWARD AND
-0.3010 GO FORWARDS </s>
-0.3010 HI THEN TURN
-0.3010 I AM A
-0.3010 IN MY WAY
-0.3010 LEFT AND THEN
-0.3010 MULTI STEP COMMANDS
-0.3010 MY WAY </s>
-0.3010 SAY GOODBYE </s>
-0.3010 SAY HELLO </s>
-0.3010 SAY HI THEN
-0.3010 SAY I AM
-0.3010 SAY MULTI STEP
-0.3010 SAY YOU ARE
-0.3010 STEP COMMANDS ARE
-0.3010 THEN TURN LEFT
-0.4260 TURN LEFT </s>
-0.9031 TURN LEFT AND
-0.3010 TURN RIGHT </s>
-0.3010 YOU ARE IN

\end\
