Language model created by QuickLM on Thu May 11 19:44:29 EDT 2017
Copyright (c) 1996-2010 Carnegie Mellon University and Alexander I. Rudnicky

The model is in standard ARPA format, designed by Doug Paul while he was at MITRE.

The code that was used to produce this language model is available in Open Source.
Please visit http://www.speech.cs.cmu.edu/tools/ for more information

The (fixed) discount mass is 0.5. The backoffs are computed using the ratio method.
This model based on a corpus of 12 sentences and 24 words

\data\
ngram 1=24
ngram 2=35
ngram 3=35

\1-grams:
-1.0348 </s> -0.3010
-1.0348 <s> -0.2478
-2.1139 A -0.2977
-2.1139 AM -0.2977
-1.8129 AND -0.2770
-2.1139 ARE -0.2977
-2.1139 BACKWARD -0.2590
-2.1139 BACKWARDS -0.2590
-1.8129 FORWARD -0.2515
-2.1139 FORWARDS -0.2590
-1.4150 GO -0.2840
-1.8129 HELLO -0.2590
-2.1139 HI -0.2943
-2.1139 I -0.2977
-2.1139 IN -0.2977
-1.5119 LEFT -0.2515
-2.1139 MY -0.2977
-2.1139 RIGHT -0.2590
-2.1139 ROBOT -0.2590
-1.4150 SAY -0.2840
-1.8129 THEN -0.2840
-1.4150 TURN -0.2840
-2.1139 WAY -0.2590
-2.1139 YOU -0.2977

\2-grams:
-0.6812 <s> GO 0.0000
-0.7782 <s> SAY 0.0000
-0.9031 <s> TURN 0.0000
-0.3010 A ROBOT 0.0000
-0.3010 AM A 0.0000
-0.6021 AND SAY -0.2041
-0.6021 AND THEN 0.0000
-0.3010 ARE IN 0.0000
-0.3010 BACKWARD </s> -0.3010
-0.3010 BACKWARDS </s> -0.3010
-0.6021 FORWARD </s> -0.3010
-0.6021 FORWARD AND -0.1761
-0.3010 FORWARDS </s> -0.3010
-1.0000 GO BACKWARD 0.0000
-1.0000 GO BACKWARDS 0.0000
-0.6990 GO FORWARD 0.0000
-1.0000 GO FORWARDS 0.0000
-0.3010 HELLO </s> -0.3010
-0.3010 HI THEN 0.0000
-0.3010 I AM 0.0000
-0.3010 IN MY 0.0000
-0.4260 LEFT </s> -0.3010
-0.9031 LEFT AND -0.1761
-0.3010 MY WAY 0.0000
-0.3010 RIGHT </s> -0.3010
-0.3010 ROBOT </s> -0.3010
-0.6990 SAY HELLO 0.0000
-1.0000 SAY HI 0.0000
-1.0000 SAY I 0.0000
-1.0000 SAY YOU 0.0000
-0.3010 THEN TURN -0.0792
-0.3979 TURN LEFT 0.0000
-1.0000 TURN RIGHT 0.0000
-0.3010 WAY </s> -0.3010
-0.3010 YOU ARE 0.0000

\3-grams:
-1.0000 <s> GO BACKWARD
-1.0000 <s> GO BACKWARDS
-0.6990 <s> GO FORWARD
-1.0000 <s> GO FORWARDS
-0.9031 <s> SAY HELLO
-0.9031 <s> SAY HI
-0.9031 <s> SAY I
-0.9031 <s> SAY YOU
-0.4771 <s> TURN LEFT
-0.7782 <s> TURN RIGHT
-0.3010 A ROBOT </s>
-0.3010 AM A ROBOT
-0.3010 AND SAY HELLO
-0.3010 AND THEN TURN
-0.3010 ARE IN MY
-0.3010 FORWARD AND SAY
-0.3010 GO BACKWARD </s>
-0.3010 GO BACKWARDS </s>
-0.6021 GO FORWARD </s>
-0.6021 GO FORWARD AND
-0.3010 GO FORWARDS </s>
-0.3010 HI THEN TURN
-0.3010 I AM A
-0.3010 IN MY WAY
-0.3010 LEFT AND THEN
-0.3010 MY WAY </s>
-0.3010 SAY HELLO </s>
-0.3010 SAY HI THEN
-0.3010 SAY I AM
-0.3010 SAY YOU ARE
-0.3010 THEN TURN LEFT
-0.4260 TURN LEFT </s>
-0.9031 TURN LEFT AND
-0.3010 TURN RIGHT </s>
-0.3010 YOU ARE IN

\end\
